{
  "type": "LSTM",
  "options": {
    "inputSize": 31,
    "inputRange": 31,
    "hiddenLayers": [
      20,
      20
    ],
    "outputSize": 31,
    "decayRate": 0.999,
    "smoothEps": 1e-8,
    "regc": 0.000001,
    "clipval": 5,
    "maxPredictionLength": 100,
    "dataFormatter": {
      "values": [
        "my unit test failed",
        "software",
        "tried the program, but it was buggy",
        "i need a new power supply",
        "hardware",
        "the drive has a 2TB capacity",
        "unit-tests",
        "program",
        "power supply",
        "drive",
        "it needs more memory",
        "code",
        "i found some bugs in the code",
        "i swapped the memory",
        "i tested the code",
        "i love computers",
        "programming",
        "i broke my pc",
        "computer",
        "buy me a laptop",
        "i love to play games"
      ],
      "indexTable": {
        "2": 22,
        "m": 0,
        "y": 1,
        " ": 2,
        "u": 3,
        "n": 4,
        "i": 5,
        "t": 6,
        "e": 7,
        "s": 8,
        "f": 9,
        "a": 10,
        "l": 11,
        "d": 12,
        "o": 13,
        "w": 14,
        "r": 15,
        "h": 16,
        "p": 17,
        "g": 18,
        ",": 19,
        "b": 20,
        "v": 21,
        "T": 23,
        "B": 24,
        "c": 25,
        "-": 26,
        "k": 27,
        "stop-input": 28,
        "start-output": 29,
        "unrecognized": 30
      },
      "characterTable": {
        "0": "m",
        "1": "y",
        "2": " ",
        "3": "u",
        "4": "n",
        "5": "i",
        "6": "t",
        "7": "e",
        "8": "s",
        "9": "f",
        "10": "a",
        "11": "l",
        "12": "d",
        "13": "o",
        "14": "w",
        "15": "r",
        "16": "h",
        "17": "p",
        "18": "g",
        "19": ",",
        "20": "b",
        "21": "v",
        "22": "2",
        "23": "T",
        "24": "B",
        "25": "c",
        "26": "-",
        "27": "k",
        "28": null,
        "29": null,
        "30": null
      },
      "characters": [
        "m",
        "y",
        " ",
        "u",
        "n",
        "i",
        "t",
        "e",
        "s",
        "f",
        "a",
        "l",
        "d",
        "o",
        "w",
        "r",
        "h",
        "p",
        "g",
        ",",
        "b",
        "v",
        "2",
        "T",
        "B",
        "c",
        "-",
        "k",
        "stop-input",
        "start-output",
        "unrecognized"
      ],
      "specialIndexes": [
        28,
        29,
        30
      ]
    }
  },
  "input": {
    "rows": 32,
    "columns": 31,
    "weights": {
      "0": 0.3543476164340973,
      "1": -1.2328349351882935,
      "2": -0.3753945231437683,
      "3": -0.5640092492103577,
      "4": 1.0482314825057983,
      "5": -3.533529043197632,
      "6": 0.5313795208930969,
      "7": 0.5772813558578491,
      "8": -1.3876336812973022,
      "9": -1.0654892921447754,
      "10": -0.45438238978385925,
      "11": 1.323155164718628,
      "12": -2.6897337436676025,
      "13": -1.9802979230880737,
      "14": 0.12716323137283325,
      "15": -0.41363123059272766,
      "16": -0.7832621932029724,
      "17": -0.0015319520607590675,
      "18": 1.6598215103149414,
      "19": -0.449882447719574,
      "20": -1.920323371887207,
      "21": -0.3910905420780182,
      "22": -0.01399485394358635,
      "23": 1.3587629795074463,
      "24": 1.5396980047225952,
      "25": -0.32122623920440674,
      "26": 1.5013824701309204,
      "27": 1.3866075277328491,
      "28": -3.2302253246307373,
      "29": -0.5480729937553406,
      "30": 0.33131223917007446,
      "31": 1.5487185716629028,
      "32": -3.3085265159606934,
      "33": -2.3454251289367676,
      "34": -1.078193187713623,
      "35": 3.905441999435425,
      "36": 2.1297900676727295,
      "37": 1.8932143449783325,
      "38": 0.7670331001281738,
      "39": -0.6344979405403137,
      "40": -2.4505531787872314,
      "41": -2.7314562797546387,
      "42": 0.37336465716362,
      "43": -3.4101812839508057,
      "44": -2.8748109340667725,
      "45": -1.575476884841919,
      "46": -1.4274177551269531,
      "47": -1.2209937572479248,
      "48": -1.7928261756896973,
      "49": 2.1709542274475098,
      "50": 1.2597371339797974,
      "51": 2.645838499069214,
      "52": -2.0998897552490234,
      "53": -2.49418568611145,
      "54": 0.2111755758523941,
      "55": 1.8891139030456543,
      "56": 1.6194241046905518,
      "57": -1.083361029624939,
      "58": 1.5810058116912842,
      "59": -0.171625554561615,
      "60": -1.5431534051895142,
      "61": -1.0553361177444458,
      "62": 3.7043182849884033,
      "63": -2.25258469581604,
      "64": -3.5728323459625244,
      "65": -4.457728385925293,
      "66": 2.5212247371673584,
      "67": -0.7536880373954773,
      "68": 3.3577284812927246,
      "69": -0.328657329082489,
      "70": 0.4345513582229614,
      "71": 0.7893500328063965,
      "72": 1.1609896421432495,
      "73": 0.6772955656051636,
      "74": -0.8515685200691223,
      "75": -0.9353020787239075,
      "76": -1.8312444686889648,
      "77": -3.3997838497161865,
      "78": -3.2664802074432373,
      "79": -3.705573797225952,
      "80": 0.8547238111495972,
      "81": 0.51185542345047,
      "82": 0.744634747505188,
      "83": -0.9630576372146606,
      "84": 0.09179778397083282,
      "85": 3.258380174636841,
      "86": 4.746570587158203,
      "87": 1.6442482471466064,
      "88": 0.201154425740242,
      "89": -4.327606201171875,
      "90": 0.1026550754904747,
      "91": 0.5248197913169861,
      "92": 2.383796453475952,
      "93": -1.3080830574035645,
      "94": -2.818293571472168,
      "95": -0.0009841632563620806,
      "96": 1.228163480758667,
      "97": -1.090909719467163,
      "98": 1.3352620601654053,
      "99": 0.7840533256530762,
      "100": 0.36308518052101135,
      "101": -4.708014965057373,
      "102": -0.03470166027545929,
      "103": 0.12331676483154297,
      "104": 0.8500064611434937,
      "105": -1.3408387899398804,
      "106": -1.1810524463653564,
      "107": 0.16218619048595428,
      "108": -1.0486478805541992,
      "109": -0.3005061745643616,
      "110": -1.6192560195922852,
      "111": -0.348036527633667,
      "112": -0.20231032371520996,
      "113": -0.5157334208488464,
      "114": -1.499603271484375,
      "115": 1.5536412000656128,
      "116": 0.19120463728904724,
      "117": 0.525833785533905,
      "118": -3.864877462387085,
      "119": -1.544735312461853,
      "120": 2.8561837673187256,
      "121": -2.9324159622192383,
      "122": -0.10103192180395126,
      "123": -1.4716205596923828,
      "124": -1.098142147064209,
      "125": -0.37812864780426025,
      "126": -3.2564306259155273,
      "127": -0.9058336615562439,
      "128": 5.777408123016357,
      "129": -0.6328661441802979,
      "130": 4.1857590675354,
      "131": 0.9412266612052917,
      "132": 0.6972344517707825,
      "133": -5.127629280090332,
      "134": 0.8081666827201843,
      "135": -0.8505162000656128,
      "136": -6.590140342712402,
      "137": -0.8828908205032349,
      "138": -0.01802990771830082,
      "139": -2.1259870529174805,
      "140": 0.08619999140501022,
      "141": -0.3032493591308594,
      "142": -0.0992678850889206,
      "143": -2.66866135597229,
      "144": -3.201403856277466,
      "145": 0.3476611077785492,
      "146": -0.28201916813850403,
      "147": 1.2607431411743164,
      "148": 4.486083030700684,
      "149": -2.177748680114746,
      "150": -3.2396411895751953,
      "151": 0.19704939424991608,
      "152": -0.21430902183055878,
      "153": -0.12697169184684753,
      "154": 0.04423085227608681,
      "155": -1.6602915525436401,
      "156": 3.551952362060547,
      "157": -0.2228316217660904,
      "158": -0.6380080580711365,
      "159": -2.1917598247528076,
      "160": -0.09957177191972733,
      "161": -1.9936842918395996,
      "162": -3.7575290203094482,
      "163": 1.8600406646728516,
      "164": -0.43333739042282104,
      "165": -0.67046719789505,
      "166": -0.518584668636322,
      "167": 0.2856167256832123,
      "168": 2.208214044570923,
      "169": 1.558084487915039,
      "170": 1.9797298908233643,
      "171": 0.09776107221841812,
      "172": 0.37002769112586975,
      "173": -0.720781683921814,
      "174": -3.3222250938415527,
      "175": 4.967441082000732,
      "176": -0.32321590185165405,
      "177": -0.37533265352249146,
      "178": -1.536061406135559,
      "179": 0.057819973677396774,
      "180": -0.8263017535209656,
      "181": -2.4863743782043457,
      "182": -4.583295822143555,
      "183": 5.752570629119873,
      "184": -0.5064023733139038,
      "185": -0.5648990273475647,
      "186": 1.7070972919464111,
      "187": 3.2467968463897705,
      "188": -0.8425599336624146,
      "189": 0.7833169102668762,
      "190": 0.2649174630641937,
      "191": 1.3745346069335938,
      "192": 0.8710057139396667,
      "193": -0.6442649960517883,
      "194": 0.6662570238113403,
      "195": 1.8903839588165283,
      "196": 1.4359294176101685,
      "197": -0.43743574619293213,
      "198": 1.8817434310913086,
      "199": 3.094985246658325,
      "200": 0.7719745635986328,
      "201": -0.14008118212223053,
      "202": 0.8298446536064148,
      "203": -0.7223109602928162,
      "204": -1.0575112104415894,
      "205": 1.6455656290054321,
      "206": -0.8778904676437378,
      "207": 2.8385167121887207,
      "208": -1.6323968172073364,
      "209": -3.8656036853790283,
      "210": -1.9629743099212646,
      "211": 1.5886929035186768,
      "212": 3.2565181255340576,
      "213": 0.3731042742729187,
      "214": -1.4215242862701416,
      "215": -0.4336719214916229,
      "216": 1.153387427330017,
      "217": -3.064770221710205,
      "218": 0.5864073038101196,
      "219": 2.9183831214904785,
      "220": 1.5285370349884033,
      "221": -1.7409143447875977,
      "222": 0.15192528069019318,
      "223": 1.2286899089813232,
      "224": 0.7741869688034058,
      "225": -0.21105246245861053,
      "226": 0.2682223618030548,
      "227": 0.5101886987686157,
      "228": 0.9925013184547424,
      "229": 1.4279329776763916,
      "230": 1.1406333446502686,
      "231": 0.6979616284370422,
      "232": 1.790366530418396,
      "233": 0.5441214442253113,
      "234": 0.5011997818946838,
      "235": 1.4449408054351807,
      "236": -0.24162788689136505,
      "237": -3.168877124786377,
      "238": -0.630667507648468,
      "239": -1.6827796697616577,
      "240": -2.0823512077331543,
      "241": -2.0087013244628906,
      "242": -0.6147888898849487,
      "243": 1.2493140697479248,
      "244": 0.3696597218513489,
      "245": -1.487019419670105,
      "246": 0.8740344047546387,
      "247": 0.029182154685258865,
      "248": 0.37545445561408997,
      "249": -0.040774837136268616,
      "250": 1.1342716217041016,
      "251": -1.783161997795105,
      "252": -0.3433628976345062,
      "253": -0.13345390558242798,
      "254": -0.14712870121002197,
      "255": -0.11475139856338501,
      "256": 0.12809155881404877,
      "257": 0.6130747199058533,
      "258": -0.3269175589084625,
      "259": -1.0223896503448486,
      "260": 0.17703525722026825,
      "261": 1.1907745599746704,
      "262": 1.0034235715866089,
      "263": 0.38954272866249084,
      "264": 0.5223610997200012,
      "265": 0.11600545793771744,
      "266": 1.6526731252670288,
      "267": 0.18821145594120026,
      "268": -1.521376371383667,
      "269": -0.2573075592517853,
      "270": 0.005991343874484301,
      "271": 2.6610491275787354,
      "272": 0.3908841609954834,
      "273": -1.2629936933517456,
      "274": -0.049987293779850006,
      "275": 1.1574451923370361,
      "276": 0.23318661749362946,
      "277": 0.7956537008285522,
      "278": 1.2780885696411133,
      "279": -1.5095456838607788,
      "280": 0.936150074005127,
      "281": -0.6211763024330139,
      "282": 1.475266933441162,
      "283": -0.1983257532119751,
      "284": 0.6260573267936707,
      "285": 1.4993287324905396,
      "286": -0.6691240668296814,
      "287": -0.7214575409889221,
      "288": 0.5289497375488281,
      "289": -0.46009325981140137,
      "290": 0.18345879018306732,
      "291": 0.8035811185836792,
      "292": 0.36882346868515015,
      "293": -0.8842568397521973,
      "294": 0.19074495136737823,
      "295": -0.07377974689006805,
      "296": -1.2505608797073364,
      "297": 1.6032267808914185,
      "298": -0.46113699674606323,
      "299": 1.7331433296203613,
      "300": 0.8283030986785889,
      "301": 0.022746587172150612,
      "302": -0.9320420026779175,
      "303": -0.24654322862625122,
      "304": -1.435153603553772,
      "305": -2.028646469116211,
      "306": 1.4136945009231567,
      "307": 2.8028552532196045,
      "308": -2.9388344287872314,
      "309": 0.07146372646093369,
      "310": 0.5065146088600159,
      "311": -0.719251275062561,
      "312": -0.6693953275680542,
      "313": 1.9985424280166626,
      "314": 0.2077229619026184,
      "315": -0.164179727435112,
      "316": -1.1547534465789795,
      "317": -2.2663865089416504,
      "318": -5.472927093505859,
      "319": -1.3535740375518799,
      "320": 2.4429965019226074,
      "321": 1.2217700481414795,
      "322": -3.1882376670837402,
      "323": -1.3963226079940796,
      "324": 2.954280376434326,
      "325": -2.2872025966644287,
      "326": -4.07789421081543,
      "327": -1.7146919965744019,
      "328": 0.25536683201789856,
      "329": 0.7259231209754944,
      "330": 1.3857545852661133,
      "331": 3.8375537395477295,
      "332": -3.6861865520477295,
      "333": 2.1255342960357666,
      "334": 1.4623421430587769,
      "335": -1.5733836889266968,
      "336": -3.106520891189575,
      "337": 1.5965800285339355,
      "338": 0.9472216963768005,
      "339": 3.781498432159424,
      "340": -0.13426245748996735,
      "341": 0.004383824300020933,
      "342": -0.6275762915611267,
      "343": 0.37343084812164307,
      "344": 0.3157978653907776,
      "345": -0.5126913785934448,
      "346": 0.02518431842327118,
      "347": 0.9663809537887573,
      "348": -1.4501419067382812,
      "349": -0.33339741826057434,
      "350": -0.3910883069038391,
      "351": 0.4225556552410126,
      "352": -0.058726754039525986,
      "353": -0.13572432100772858,
      "354": 0.9174671769142151,
      "355": 0.38110607862472534,
      "356": -0.11244077980518341,
      "357": -0.1320042610168457,
      "358": -0.4189209043979645,
      "359": 1.0918993949890137,
      "360": -1.016888976097107,
      "361": -1.0982797145843506,
      "362": -0.023815201595425606,
      "363": -0.8871497511863708,
      "364": 1.8903636932373047,
      "365": -0.272685170173645,
      "366": -0.8685479760169983,
      "367": -2.656372308731079,
      "368": 0.7736945748329163,
      "369": -0.05692332983016968,
      "370": 0.5938423871994019,
      "371": 0.45505842566490173,
      "372": -0.28488683700561523,
      "373": 0.7067062854766846,
      "374": 0.2883913516998291,
      "375": -5.5497660636901855,
      "376": 2.520794153213501,
      "377": 2.4202356338500977,
      "378": 2.300532102584839,
      "379": 6.030396938323975,
      "380": 2.739561080932617,
      "381": -2.5839054584503174,
      "382": -5.075514316558838,
      "383": -1.451334834098816,
      "384": -3.504582405090332,
      "385": 1.2337342500686646,
      "386": -4.004938125610352,
      "387": 1.5494829416275024,
      "388": 4.407942295074463,
      "389": 4.166850566864014,
      "390": -1.1107230186462402,
      "391": -3.046334743499756,
      "392": -4.83914852142334,
      "393": 0.9363261461257935,
      "394": 5.5593156814575195,
      "395": 4.829146862030029,
      "396": 4.24586296081543,
      "397": 3.7645089626312256,
      "398": 2.760963201522827,
      "399": 3.194061040878296,
      "400": -0.5277518033981323,
      "401": -0.16978603601455688,
      "402": 4.255425453186035,
      "403": -2.9088361263275146,
      "404": -2.067261219024658,
      "405": 2.7187142372131348,
      "406": 2.9940953254699707,
      "407": -0.7491216659545898,
      "408": 1.3943160772323608,
      "409": -3.2370948791503906,
      "410": -3.4336280822753906,
      "411": -1.475277304649353,
      "412": -1.373858094215393,
      "413": 3.2384183406829834,
      "414": -1.3618143796920776,
      "415": 1.116492509841919,
      "416": -0.1658972203731537,
      "417": 0.5860130190849304,
      "418": -1.2510969638824463,
      "419": 1.9422603845596313,
      "420": -0.8487406969070435,
      "421": 1.5968012809753418,
      "422": -0.618016242980957,
      "423": -0.574803352355957,
      "424": -1.3013243675231934,
      "425": -3.053555965423584,
      "426": -0.4766106903553009,
      "427": -4.328601360321045,
      "428": -3.2849085330963135,
      "429": -1.1156857013702393,
      "430": 3.4319252967834473,
      "431": -0.007914266549050808,
      "432": 1.0725136995315552,
      "433": -0.7721595764160156,
      "434": 1.462409257888794,
      "435": 1.0315337181091309,
      "436": -1.8946770429611206,
      "437": 0.44264480471611023,
      "438": 1.5274555683135986,
      "439": 1.7818820476531982,
      "440": 0.348398357629776,
      "441": 1.1275315284729004,
      "442": -0.47961845993995667,
      "443": -2.360412836074829,
      "444": -0.3399546444416046,
      "445": 1.1514630317687988,
      "446": 0.43167150020599365,
      "447": -2.054304599761963,
      "448": -1.0499687194824219,
      "449": -1.2712286710739136,
      "450": 2.2208571434020996,
      "451": -1.1249550580978394,
      "452": -2.86143159866333,
      "453": 1.7171212434768677,
      "454": -1.806505799293518,
      "455": 1.3822596073150635,
      "456": 0.41309577226638794,
      "457": -4.1539435386657715,
      "458": 1.9027692079544067,
      "459": -0.6691791415214539,
      "460": 0.643591582775116,
      "461": 3.189725875854492,
      "462": -1.2779395580291748,
      "463": -0.7824487686157227,
      "464": -2.8165457248687744,
      "465": 0.06777023524045944,
      "466": 1.555497646331787,
      "467": 1.6070393323898315,
      "468": 2.770749807357788,
      "469": -1.254063367843628,
      "470": 0.7310319542884827,
      "471": -1.45975923538208,
      "472": -2.3929061889648438,
      "473": 0.8609004616737366,
      "474": 1.7810943126678467,
      "475": 1.0538711547851562,
      "476": -0.9629785418510437,
      "477": 1.8511674404144287,
      "478": 0.42219629883766174,
      "479": 1.4734892845153809,
      "480": 1.1775708198547363,
      "481": -0.23129470646381378,
      "482": 0.9430279731750488,
      "483": 1.3309966325759888,
      "484": 1.086416482925415,
      "485": -1.0585631132125854,
      "486": 1.0111336708068848,
      "487": -2.1225500106811523,
      "488": 1.8871591091156006,
      "489": -3.147702693939209,
      "490": 0.4439924657344818,
      "491": 2.1168558597564697,
      "492": 1.012612223625183,
      "493": -0.4744293987751007,
      "494": 1.6955420970916748,
      "495": 0.4626644253730774,
      "496": 2.8708229064941406,
      "497": -0.43378207087516785,
      "498": 0.1707867830991745,
      "499": 1.0076088905334473,
      "500": 0.03687571361660957,
      "501": -0.680754542350769,
      "502": -0.9399872422218323,
      "503": -0.06103416159749031,
      "504": -1.244258165359497,
      "505": 2.431851863861084,
      "506": 0.24274399876594543,
      "507": -1.2677083015441895,
      "508": 0.04344780370593071,
      "509": -1.3257293701171875,
      "510": -0.6433794498443604,
      "511": -0.1541879028081894,
      "512": 0.07686598598957062,
      "513": -0.38087061047554016,
      "514": 2.212878942489624,
      "515": 3.155134916305542,
      "516": 1.8293293714523315,
      "517": 0.02705431915819645,
      "518": 0.3092958629131317,
      "519": 0.2871338725090027,
      "520": 0.39493221044540405,
      "521": 0.34412243962287903,
      "522": -1.1338046789169312,
      "523": 0.8974779844284058,
      "524": -0.3676747679710388,
      "525": 0.2332524210214615,
      "526": -1.0138541460037231,
      "527": -1.3338080644607544,
      "528": 0.5986364483833313,
      "529": -0.057512253522872925,
      "530": 0.8104494214057922,
      "531": -3.393446445465088,
      "532": -1.4170358180999756,
      "533": -1.4389808177947998,
      "534": -1.8510218858718872,
      "535": 0.4565765857696533,
      "536": -2.3068339824676514,
      "537": 1.6596758365631104,
      "538": 1.0118393898010254,
      "539": 1.2450590133666992,
      "540": -1.0523020029067993,
      "541": 6.576749801635742,
      "542": 1.0808132886886597,
      "543": -4.975356578826904,
      "544": 4.079209327697754,
      "545": -2.9610161781311035,
      "546": -2.191514730453491,
      "547": 1.0396699905395508,
      "548": 0.28563275933265686,
      "549": -1.3241665363311768,
      "550": 2.9396512508392334,
      "551": -3.526862382888794,
      "552": -0.691777229309082,
      "553": 0.3868831992149353,
      "554": -2.027289867401123,
      "555": 2.8105812072753906,
      "556": 0.2677103579044342,
      "557": -1.157273769378662,
      "558": 0.4633595645427704,
      "559": -4.08204984664917,
      "560": -2.358657121658325,
      "561": 1.0251675844192505,
      "562": -0.44840008020401,
      "563": -0.9587046504020691,
      "564": -0.35579174757003784,
      "565": -0.5909920334815979,
      "566": -3.8262455463409424,
      "567": -1.417920708656311,
      "568": 1.501771330833435,
      "569": -2.5017778873443604,
      "570": 1.2721294164657593,
      "571": -4.950003623962402,
      "572": -3.957423210144043,
      "573": -2.6804490089416504,
      "574": -0.39224541187286377,
      "575": -2.403412342071533,
      "576": 0.12345627695322037,
      "577": 2.5507895946502686,
      "578": 4.1111674308776855,
      "579": -3.0566234588623047,
      "580": -0.24682755768299103,
      "581": -0.06792712211608887,
      "582": -1.1195125579833984,
      "583": -2.6858389377593994,
      "584": -0.23342850804328918,
      "585": -3.584024429321289,
      "586": 0.12456804513931274,
      "587": -1.720505714416504,
      "588": 1.8994187116622925,
      "589": -2.9078550338745117,
      "590": -0.2500816285610199,
      "591": 5.751168727874756,
      "592": -1.4914051294326782,
      "593": -6.422988414764404,
      "594": -5.706808090209961,
      "595": -3.2019059658050537,
      "596": -0.488715797662735,
      "597": 1.8796581029891968,
      "598": 1.0114175081253052,
      "599": -2.6813316345214844,
      "600": 4.597376823425293,
      "601": 0.8200885057449341,
      "602": 2.0081121921539307,
      "603": 5.416265487670898,
      "604": -0.12276259809732437,
      "605": 2.2817466259002686,
      "606": 2.0361578464508057,
      "607": -1.736037015914917,
      "608": -7.950210094451904,
      "609": -0.6512867212295532,
      "610": -1.8629438877105713,
      "611": -1.1926923990249634,
      "612": 1.7886345386505127,
      "613": -2.740309715270996,
      "614": -2.271261692047119,
      "615": -5.263123035430908,
      "616": -3.850050687789917,
      "617": 0.5488196611404419,
      "618": 1.6406773328781128,
      "619": 3.3379030227661133,
      "620": 11.991130828857422,
      "621": -11.153688430786133,
      "622": -6.606398105621338,
      "623": -2.0370187759399414,
      "624": 4.637650489807129,
      "625": -5.0264892578125,
      "626": 8.93228530883789,
      "627": 0.34132498502731323,
      "628": -4.912916660308838,
      "629": 4.555739879608154,
      "630": 5.978701114654541,
      "631": -5.467212200164795,
      "632": -1.481796383857727,
      "633": -10.468449592590332,
      "634": -11.777466773986816,
      "635": -20.455278396606445,
      "636": -0.7454297542572021,
      "637": -29.418167114257812,
      "638": 6.071573257446289,
      "639": 3.6388721466064453,
      "640": 2.8853914737701416,
      "641": -10.637280464172363,
      "642": 6.654463291168213,
      "643": -4.705626487731934,
      "644": -1.3163505792617798,
      "645": -3.8709471225738525,
      "646": 2.573532819747925,
      "647": 2.78751277923584,
      "648": 8.192096710205078,
      "649": 5.328178405761719,
      "650": 4.573343276977539,
      "651": -2.236666202545166,
      "652": 5.533699989318848,
      "653": -1.160029411315918,
      "654": -1.3369708061218262,
      "655": -2.6992549896240234,
      "656": 2.1978542804718018,
      "657": -0.3537759482860565,
      "658": 2.800293445587158,
      "659": 9.86931037902832,
      "660": 2.8937230110168457,
      "661": -4.692938327789307,
      "662": -0.5876567363739014,
      "663": 2.798255205154419,
      "664": 5.547478199005127,
      "665": 1.712963342666626,
      "666": 5.9830827713012695,
      "667": -0.022466864436864853,
      "668": 7.654510974884033,
      "669": 0.8439915776252747,
      "670": -3.023054361343384,
      "671": 1.3996073007583618,
      "672": 1.295130729675293,
      "673": 5.1438798904418945,
      "674": -2.877756357192993,
      "675": 0.21452800929546356,
      "676": 3.338932514190674,
      "677": 0.3470430076122284,
      "678": -8.441211700439453,
      "679": 5.093408584594727,
      "680": -1.2845945358276367,
      "681": -2.2370033264160156,
      "682": 5.67983865737915,
      "683": 3.7984654903411865,
      "684": -1.1583375930786133,
      "685": 3.574547290802002,
      "686": -0.44405433535575867,
      "687": 1.7348626852035522,
      "688": -1.5142035484313965,
      "689": 2.475623369216919,
      "690": 7.397805213928223,
      "691": 9.218094825744629,
      "692": 0.1915922909975052,
      "693": -1.951311469078064,
      "694": 3.298175573348999,
      "695": 5.579234600067139,
      "696": 1.2804534435272217,
      "697": 0.6394612193107605,
      "698": -0.16501852869987488,
      "699": 3.55226993560791,
      "700": 0.47415733337402344,
      "701": 1.8626314401626587,
      "702": 5.022647380828857,
      "703": -0.2426813393831253,
      "704": -1.8743187189102173,
      "705": 3.627488136291504,
      "706": 0.20291607081890106,
      "707": 6.404483795166016,
      "708": 2.2606117725372314,
      "709": -3.7847986221313477,
      "710": 4.261685848236084,
      "711": 7.969208240509033,
      "712": 2.022921562194824,
      "713": -5.455593585968018,
      "714": 2.057616710662842,
      "715": 8.664877891540527,
      "716": -7.843771934509277,
      "717": -8.532004356384277,
      "718": 1.9710102081298828,
      "719": -2.486701726913452,
      "720": 6.343695163726807,
      "721": 13.05933666229248,
      "722": 9.107331275939941,
      "723": -5.679249286651611,
      "724": 2.1111292839050293,
      "725": 9.0684232711792,
      "726": 11.639223098754883,
      "727": -1.6245160102844238,
      "728": 4.550308704376221,
      "729": 4.636786937713623,
      "730": 2.5873782634735107,
      "731": 3.0209543704986572,
      "732": 0.3171076774597168,
      "733": 0.9984430074691772,
      "734": -4.236568450927734,
      "735": 6.389378547668457,
      "736": -3.017690420150757,
      "737": 1.1950243711471558,
      "738": 6.1910858154296875,
      "739": 2.4342901706695557,
      "740": -3.8642659187316895,
      "741": 4.412315368652344,
      "742": -5.873143672943115,
      "743": 1.4578475952148438,
      "744": 0.32898151874542236,
      "745": -3.770481824874878,
      "746": 6.714130401611328,
      "747": -1.905381679534912,
      "748": -7.0923871994018555,
      "749": 3.46545147895813,
      "750": -12.047892570495605,
      "751": -14.055229187011719,
      "752": 4.07611608505249,
      "753": 1.6463978290557861,
      "754": 17.751100540161133,
      "755": -12.099542617797852,
      "756": 15.326493263244629,
      "757": -6.733320236206055,
      "758": 4.718301773071289,
      "759": -3.6046152114868164,
      "760": -14.648645401000977,
      "761": 0.48751312494277954,
      "762": -0.46197256445884705,
      "763": 3.346230983734131,
      "764": 9.474906921386719,
      "765": 6.514244079589844,
      "766": -23.442846298217773,
      "767": -1.6277822256088257,
      "768": -5.261535167694092,
      "769": 11.011335372924805,
      "770": 4.169802188873291,
      "771": -8.355233192443848,
      "772": 0.16260851919651031,
      "773": 1.9617911577224731,
      "774": -3.274521589279175,
      "775": -5.362750053405762,
      "776": 15.902042388916016,
      "777": -5.160541534423828,
      "778": 6.205389022827148,
      "779": 5.071451187133789,
      "780": -5.866137981414795,
      "781": 0.4839465916156769,
      "782": 0.622554361820221,
      "783": -3.2767696380615234,
      "784": 1.2209250926971436,
      "785": 4.212034702301025,
      "786": 0.9605905413627625,
      "787": -2.385044813156128,
      "788": 2.466040849685669,
      "789": 1.7849103212356567,
      "790": 15.385872840881348,
      "791": 0.03822833672165871,
      "792": 16.01290512084961,
      "793": -0.8932766318321228,
      "794": 1.1215475797653198,
      "795": 15.912492752075195,
      "796": 10.467874526977539,
      "797": 3.1832046508789062,
      "798": 3.0126967430114746,
      "799": 0.6590254902839661,
      "800": -0.28150495886802673,
      "801": -8.973615646362305,
      "802": 3.710711717605591,
      "803": 13.920486450195312,
      "804": 5.4918742179870605,
      "805": 5.088177680969238,
      "806": -0.05139537900686264,
      "807": 1.0635498762130737,
      "808": 5.196138381958008,
      "809": 1.45442795753479,
      "810": -5.011087417602539,
      "811": 1.7088271379470825,
      "812": -4.194250583648682,
      "813": -5.153958320617676,
      "814": 3.686368227005005,
      "815": 0.7414056658744812,
      "816": 2.0445289611816406,
      "817": -0.7191969752311707,
      "818": 4.1634087562561035,
      "819": -2.2184619903564453,
      "820": 3.551100969314575,
      "821": 0.18242669105529785,
      "822": -6.660422325134277,
      "823": 2.2495415210723877,
      "824": 1.2298649549484253,
      "825": 0.049364250153303146,
      "826": 5.138615131378174,
      "827": 3.3761184215545654,
      "828": -2.2586634159088135,
      "829": 5.1419782638549805,
      "830": 0.05371280387043953,
      "831": 1.52121102809906,
      "832": 1.2375986576080322,
      "833": -2.464655876159668,
      "834": 6.617631435394287,
      "835": 8.720911979675293,
      "836": 2.2753803730010986,
      "837": 6.226352214813232,
      "838": 5.976335525512695,
      "839": -10.259757995605469,
      "840": 10.14297866821289,
      "841": -4.7379231452941895,
      "842": 9.143054962158203,
      "843": -1.5517863035202026,
      "844": 1.7229223251342773,
      "845": -3.499607563018799,
      "846": 3.946385145187378,
      "847": -2.2169435024261475,
      "848": 1.1114400625228882,
      "849": 2.3501312732696533,
      "850": 8.06201171875,
      "851": -3.533745527267456,
      "852": 1.4014198780059814,
      "853": 4.528308868408203,
      "854": -6.375699996948242,
      "855": -4.984577655792236,
      "856": 15.409133911132812,
      "857": 5.431055068969727,
      "858": 5.762905120849609,
      "859": 2.310056686401367,
      "860": -4.640785217285156,
      "861": -4.5216875076293945,
      "862": -3.619927167892456,
      "863": -3.380124807357788,
      "864": 10.517196655273438,
      "865": -3.923617124557495,
      "866": -5.315459251403809,
      "867": 1.8499659299850464,
      "868": 9.223054885864258,
      "869": -6.08289909362793,
      "870": -2.829862356185913,
      "871": 6.3368144035339355,
      "872": 5.7982964515686035,
      "873": 4.048514366149902,
      "874": 9.457609176635742,
      "875": -11.764022827148438,
      "876": -10.192728996276855,
      "877": 0.9932923913002014,
      "878": 6.237648010253906,
      "879": 0.5901160836219788,
      "880": -7.062122821807861,
      "881": -8.126225471496582,
      "882": -7.43898344039917,
      "883": -12.758216857910156,
      "884": -8.184653282165527,
      "885": -10.232858657836914,
      "886": -9.16068172454834,
      "887": 6.858483791351318,
      "888": 3.8304617404937744,
      "889": 4.614833831787109,
      "890": -11.53684139251709,
      "891": -1.020776629447937,
      "892": 5.752823352813721,
      "893": 1.11784827709198,
      "894": -5.841486930847168,
      "895": 0.7787403464317322,
      "896": -10.409838676452637,
      "897": 2.634727716445923,
      "898": 0.28590118885040283,
      "899": 0.5127043128013611,
      "900": -0.8718063831329346,
      "901": -1.4166580438613892,
      "902": -2.64135479927063,
      "903": 0.04636742174625397,
      "904": -1.129986047744751,
      "905": 0.1991228312253952,
      "906": -0.6722924709320068,
      "907": 0.39418837428092957,
      "908": -2.316171884536743,
      "909": -0.12203367799520493,
      "910": 1.136977195739746,
      "911": -2.1146411895751953,
      "912": -1.0399837493896484,
      "913": 1.1306695938110352,
      "914": 0.04834287241101265,
      "915": 1.1507171392440796,
      "916": 0.7521789073944092,
      "917": -2.125128746032715,
      "918": 0.020386142656207085,
      "919": -1.0928291082382202,
      "920": -1.9568568468093872,
      "921": 0.4511026442050934,
      "922": -0.2889338433742523,
      "923": 1.4926046133041382,
      "924": 0.5790557861328125,
      "925": 0.21160665154457092,
      "926": -1.6606162786483765,
      "927": -1.2949246168136597,
      "928": -0.03982367739081383,
      "929": 0.24633170664310455,
      "930": -0.22992241382598877,
      "931": 0.4645659327507019,
      "932": 0.08025254309177399,
      "933": 0.03367564454674721,
      "934": -0.1996758133172989,
      "935": -0.5491960644721985,
      "936": 0.05057701840996742,
      "937": 0.6187679767608643,
      "938": 1.1341105699539185,
      "939": 1.2042078971862793,
      "940": -1.3962668180465698,
      "941": -0.6241359114646912,
      "942": 0.30422335863113403,
      "943": -0.11940868198871613,
      "944": -0.0866045355796814,
      "945": -0.13470348715782166,
      "946": 1.7254796028137207,
      "947": 1.8225163221359253,
      "948": -0.4784673750400543,
      "949": 0.659260630607605,
      "950": -2.0392587184906006,
      "951": -1.4560902118682861,
      "952": 1.6084191799163818,
      "953": -1.8158936500549316,
      "954": -0.621605634689331,
      "955": 0.5790522694587708,
      "956": 0.06061524897813797,
      "957": 1.4357045888900757,
      "958": -1.744500994682312,
      "959": -2.8721768856048584,
      "960": 0.7016347050666809,
      "961": 0.06568439304828644,
      "962": 0.030407045036554337,
      "963": 0.03727779537439346,
      "964": -0.005362066440284252,
      "965": -0.06171243637800217,
      "966": 0.033006858080625534,
      "967": -0.039066381752491,
      "968": 0.045530322939157486,
      "969": 0.057069823145866394,
      "970": -0.047277554869651794,
      "971": 0.057113852351903915,
      "972": -0.0318777933716774,
      "973": 0.006354138255119324,
      "974": -0.03759419918060303,
      "975": 0.07057889550924301,
      "976": -0.05891796573996544,
      "977": -0.027286704629659653,
      "978": 0.0386604480445385,
      "979": 0.05039117857813835,
      "980": 0.011600911617279053,
      "981": 0.011718306690454483,
      "982": 0.05737657472491264,
      "983": 0.0679049864411354,
      "984": -0.0586322546005249,
      "985": -0.06968191266059875,
      "986": 0.011675022542476654,
      "987": 0.03798511624336243,
      "988": -0.04926539584994316,
      "989": -0.06606839597225189,
      "990": 0.03039577603340149,
      "991": 0.03474736213684082
    }
  },
  "hiddenLayers": [
    {
      "inputMatrix": {
        "rows": 20,
        "columns": 31,
        "weights": {
          "0": -1.6897532939910889,
          "1": -1.1153719425201416,
          "2": 2.449740171432495,
          "3": -0.5765628814697266,
          "4": -0.9670104384422302,
          "5": -1.2062671184539795,
          "6": 1.3237096071243286,
          "7": 1.4297086000442505,
          "8": -0.3956010937690735,
          "9": 0.19969281554222107,
          "10": -0.6758643984794617,
          "11": 0.4595119059085846,
          "12": -0.5768374800682068,
          "13": 1.3225361108779907,
          "14": -2.098278522491455,
          "15": -0.7406808137893677,
          "16": 1.1873849630355835,
          "17": -0.7820776700973511,
          "18": 0.25150856375694275,
          "19": -1.6895769834518433,
          "20": -1.7798478603363037,
          "21": -2.6790952682495117,
          "22": 0.8322886824607849,
          "23": 0.47050368785858154,
          "24": -0.447298139333725,
          "25": -3.5320491790771484,
          "26": -1.294442057609558,
          "27": 1.1843724250793457,
          "28": -0.047374557703733444,
          "29": -0.09250161796808243,
          "30": 1.109605312347412,
          "31": 1.691175937652588,
          "32": -0.48409712314605713,
          "33": 0.39416706562042236,
          "34": -3.9458131790161133,
          "35": -1.1506165266036987,
          "36": 0.8101323246955872,
          "37": -0.5215857625007629,
          "38": -0.34714776277542114,
          "39": -1.8760179281234741,
          "40": 0.3459809124469757,
          "41": -1.1585712432861328,
          "42": 0.6062776446342468,
          "43": 1.4003713130950928,
          "44": -1.7421422004699707,
          "45": 0.5026408433914185,
          "46": 0.07182985544204712,
          "47": -0.2072303593158722,
          "48": -0.748510479927063,
          "49": -0.6321147680282593,
          "50": 0.4020715057849884,
          "51": -0.764235258102417,
          "52": -0.16945570707321167,
          "53": -2.8516902923583984,
          "54": -0.3076886236667633,
          "55": 1.0181783437728882,
          "56": -0.29289504885673523,
          "57": 2.9391064643859863,
          "58": -1.5280407667160034,
          "59": -1.9374020099639893,
          "60": 0.935771644115448,
          "61": 0.38257360458374023,
          "62": 1.7217681407928467,
          "63": -1.7221801280975342,
          "64": -1.6078273057937622,
          "65": -1.0411298274993896,
          "66": 1.6096935272216797,
          "67": -0.1607956737279892,
          "68": -0.4516661763191223,
          "69": 1.0678147077560425,
          "70": -0.7831723690032959,
          "71": -0.337201327085495,
          "72": 0.08182138949632645,
          "73": 0.026453960686922073,
          "74": -0.6272295713424683,
          "75": -1.7442269325256348,
          "76": -1.626051425933838,
          "77": -0.840808629989624,
          "78": 0.40940946340560913,
          "79": -1.3503087759017944,
          "80": 0.07793019711971283,
          "81": 3.2769386768341064,
          "82": -0.9070167541503906,
          "83": -3.32841420173645,
          "84": 0.7149997353553772,
          "85": 0.944209098815918,
          "86": 2.004631757736206,
          "87": 1.1628544330596924,
          "88": 0.002100795740261674,
          "89": -0.7381781935691833,
          "90": -0.9952398538589478,
          "91": -0.25306016206741333,
          "92": -0.5490659475326538,
          "93": 0.16684184968471527,
          "94": -1.5318787097930908,
          "95": -2.3080296516418457,
          "96": -0.09076052159070969,
          "97": 0.8592153191566467,
          "98": 0.7896106243133545,
          "99": 0.3634786903858185,
          "100": 2.695645809173584,
          "101": -0.039630044251680374,
          "102": -1.2992489337921143,
          "103": 0.25845852494239807,
          "104": -0.4904610812664032,
          "105": -2.659470796585083,
          "106": -3.2623305320739746,
          "107": -0.615761399269104,
          "108": -1.7808328866958618,
          "109": -0.22463126480579376,
          "110": -1.0715619325637817,
          "111": -1.668609857559204,
          "112": 0.3122895061969757,
          "113": -0.1879846155643463,
          "114": -1.3309822082519531,
          "115": 1.9913522005081177,
          "116": -0.6322748064994812,
          "117": -0.2724474370479584,
          "118": 0.8095256686210632,
          "119": 0.03354316204786301,
          "120": -0.06416696310043335,
          "121": -1.8397539854049683,
          "122": -0.9403887987136841,
          "123": -1.4749542474746704,
          "124": 0.6843146085739136,
          "125": 0.7855894565582275,
          "126": 0.9663129448890686,
          "127": -1.8767273426055908,
          "128": -1.8737242221832275,
          "129": -0.4048900604248047,
          "130": -0.6503886580467224,
          "131": -0.7907233238220215,
          "132": 1.4952173233032227,
          "133": 1.8057643175125122,
          "134": 1.4593435525894165,
          "135": 0.9124634265899658,
          "136": 3.636587619781494,
          "137": 1.5898505449295044,
          "138": 2.3099546432495117,
          "139": 1.3128647804260254,
          "140": -1.6201633214950562,
          "141": -0.19414420425891876,
          "142": -0.3575417101383209,
          "143": -0.7675904035568237,
          "144": -1.034213662147522,
          "145": -0.576153576374054,
          "146": -1.5473859310150146,
          "147": 0.8655468821525574,
          "148": -0.5726898312568665,
          "149": -0.017562640830874443,
          "150": 3.036802291870117,
          "151": -4.351220607757568,
          "152": 1.3397104740142822,
          "153": 0.14504559338092804,
          "154": 1.1248314380645752,
          "155": -0.12145005166530609,
          "156": 0.8896783590316772,
          "157": -0.9260602593421936,
          "158": 1.5864490270614624,
          "159": 0.18332596123218536,
          "160": 0.30715125799179077,
          "161": 0.8240457773208618,
          "162": 1.6091842651367188,
          "163": -2.082427978515625,
          "164": -0.9193926453590393,
          "165": -1.0432885885238647,
          "166": -0.057339806109666824,
          "167": -2.485952854156494,
          "168": -0.45244717597961426,
          "169": -1.8192365169525146,
          "170": 0.30155548453330994,
          "171": 0.2742140293121338,
          "172": -1.1681599617004395,
          "173": -1.2465083599090576,
          "174": 1.0454611778259277,
          "175": 1.1320867538452148,
          "176": 0.703423023223877,
          "177": 2.5044336318969727,
          "178": -0.8771599531173706,
          "179": 0.32205262780189514,
          "180": -0.4506056308746338,
          "181": -0.41139471530914307,
          "182": 1.3110491037368774,
          "183": 0.2810653746128082,
          "184": -1.6449319124221802,
          "185": -0.8061948418617249,
          "186": -1.068135142326355,
          "187": -2.0567378997802734,
          "188": 0.6473109126091003,
          "189": 0.6566765904426575,
          "190": -0.6920002102851868,
          "191": 1.6601319313049316,
          "192": -0.11888740956783295,
          "193": -0.24812373518943787,
          "194": -2.7294750213623047,
          "195": -0.8403884172439575,
          "196": -0.12124231457710266,
          "197": 0.6084791421890259,
          "198": -0.95969557762146,
          "199": -1.7359120845794678,
          "200": -1.5022739171981812,
          "201": -0.4446883797645569,
          "202": 1.1338492631912231,
          "203": -1.6862008571624756,
          "204": 1.0232192277908325,
          "205": -0.251334547996521,
          "206": -0.24698896706104279,
          "207": -2.0292887687683105,
          "208": 0.43191030621528625,
          "209": -1.3095812797546387,
          "210": -0.3891174793243408,
          "211": -1.8246009349822998,
          "212": -2.326716184616089,
          "213": 2.2339630126953125,
          "214": -0.5249603390693665,
          "215": -0.7785722613334656,
          "216": -1.4402507543563843,
          "217": 3.150167465209961,
          "218": -0.8555034399032593,
          "219": -3.0259134769439697,
          "220": -1.0645532608032227,
          "221": 2.9993391036987305,
          "222": -0.7972375154495239,
          "223": 0.0496542826294899,
          "224": -0.89797043800354,
          "225": 0.2849075198173523,
          "226": -1.4992399215698242,
          "227": 0.6677884459495544,
          "228": -1.5707966089248657,
          "229": -0.05593879893422127,
          "230": -0.5704562067985535,
          "231": -1.671906590461731,
          "232": -1.219211220741272,
          "233": -0.5901334285736084,
          "234": -0.48718586564064026,
          "235": -0.10427644848823547,
          "236": 2.5946295261383057,
          "237": 0.23503917455673218,
          "238": 1.3020343780517578,
          "239": -1.8727666139602661,
          "240": 0.9003490805625916,
          "241": 0.8172546029090881,
          "242": 1.8561943769454956,
          "243": 0.6521522402763367,
          "244": -1.1618579626083374,
          "245": -1.1577482223510742,
          "246": 1.397922158241272,
          "247": 1.6473175287246704,
          "248": -0.019530897960066795,
          "249": -1.4576243162155151,
          "250": 1.412966012954712,
          "251": -0.5133256316184998,
          "252": -1.0958272218704224,
          "253": -1.7032252550125122,
          "254": -0.7456681728363037,
          "255": -0.35983410477638245,
          "256": -1.01670503616333,
          "257": -0.868269681930542,
          "258": -0.26265084743499756,
          "259": 0.5052516460418701,
          "260": -1.0901691913604736,
          "261": 0.8261266350746155,
          "262": 1.5671645402908325,
          "263": -0.7071903347969055,
          "264": 0.21410973370075226,
          "265": 0.7191311717033386,
          "266": -1.0634818077087402,
          "267": -0.6176904439926147,
          "268": -4.815263271331787,
          "269": -1.5432184934616089,
          "270": -0.3805128335952759,
          "271": 0.9463654160499573,
          "272": -0.8746033906936646,
          "273": -1.5929468870162964,
          "274": 0.17041246592998505,
          "275": 1.1322662830352783,
          "276": -2.5082578659057617,
          "277": 1.3630002737045288,
          "278": 0.10349780321121216,
          "279": -1.7120704650878906,
          "280": 0.9820727705955505,
          "281": 1.1832287311553955,
          "282": 0.8417445421218872,
          "283": -1.7569700479507446,
          "284": 0.27692174911499023,
          "285": -0.7375261187553406,
          "286": -0.3628968298435211,
          "287": 0.06489778310060501,
          "288": -0.05326655134558678,
          "289": 1.260888934135437,
          "290": -1.5605802536010742,
          "291": 0.26827847957611084,
          "292": 0.9256682395935059,
          "293": 3.1031668186187744,
          "294": 0.9700301289558411,
          "295": -0.5254738926887512,
          "296": 0.44658806920051575,
          "297": -1.2064459323883057,
          "298": -0.8680539131164551,
          "299": -0.20200863480567932,
          "300": -0.5095957517623901,
          "301": -1.2953407764434814,
          "302": -0.645448625087738,
          "303": -2.0300965309143066,
          "304": 0.1631045937538147,
          "305": 1.3506718873977661,
          "306": -2.2905924320220947,
          "307": 1.163119912147522,
          "308": 0.32270151376724243,
          "309": 0.5307260751724243,
          "310": 0.4008287489414215,
          "311": -1.2988802194595337,
          "312": -0.9351301193237305,
          "313": -2.1148266792297363,
          "314": 0.8405737280845642,
          "315": -0.4566250443458557,
          "316": 0.7310281991958618,
          "317": 0.7648084163665771,
          "318": -1.45963454246521,
          "319": -0.27569207549095154,
          "320": -0.7972689867019653,
          "321": -0.04164646565914154,
          "322": -1.6575157642364502,
          "323": -0.8838678002357483,
          "324": -1.3782718181610107,
          "325": -0.8168118000030518,
          "326": 0.202700674533844,
          "327": -1.5813747644424438,
          "328": 0.5355696082115173,
          "329": 0.6171444654464722,
          "330": -1.051330327987671,
          "331": -2.4177002906799316,
          "332": 0.13273432850837708,
          "333": 1.6971514225006104,
          "334": 2.1562113761901855,
          "335": 0.39214619994163513,
          "336": -0.48632726073265076,
          "337": 0.7229232788085938,
          "338": -2.5700843334198,
          "339": 0.5082818865776062,
          "340": -0.5595605373382568,
          "341": -2.2084977626800537,
          "342": 0.10883912444114685,
          "343": 1.217642903327942,
          "344": 3.7003512382507324,
          "345": -1.327649712562561,
          "346": 0.0309450663626194,
          "347": 0.29357439279556274,
          "348": -0.710910439491272,
          "349": -0.8678656816482544,
          "350": -2.1109917163848877,
          "351": 2.451663017272949,
          "352": 0.6818651556968689,
          "353": 0.004518456291407347,
          "354": -1.070863962173462,
          "355": 1.228749394416809,
          "356": 0.18206076323986053,
          "357": -3.2172131538391113,
          "358": -0.5133677124977112,
          "359": 0.31217414140701294,
          "360": -0.6209565997123718,
          "361": 0.40670108795166016,
          "362": 0.8435978293418884,
          "363": -0.2889479994773865,
          "364": 0.9590498805046082,
          "365": -3.0298988819122314,
          "366": -3.536734104156494,
          "367": -0.49702155590057373,
          "368": 0.23643410205841064,
          "369": -0.48167556524276733,
          "370": -1.5386130809783936,
          "371": 0.5076116919517517,
          "372": 1.6858608722686768,
          "373": -0.844880223274231,
          "374": 0.2080535590648651,
          "375": -0.0008213439723476768,
          "376": 0.371887743473053,
          "377": 2.1037557125091553,
          "378": -2.3600335121154785,
          "379": -1.763179063796997,
          "380": -0.27982234954833984,
          "381": -0.7475588917732239,
          "382": 1.2592494487762451,
          "383": -1.5462379455566406,
          "384": 0.7848933339118958,
          "385": -1.1450397968292236,
          "386": 0.6135650873184204,
          "387": -1.9522415399551392,
          "388": -0.35675227642059326,
          "389": -1.0559558868408203,
          "390": -1.6168177127838135,
          "391": 2.7742111682891846,
          "392": 1.1402370929718018,
          "393": 1.7962124347686768,
          "394": -2.3273613452911377,
          "395": 0.8243327736854553,
          "396": -0.185732901096344,
          "397": 0.4402366876602173,
          "398": 0.5941495895385742,
          "399": -1.543038249015808,
          "400": -0.11197478324174881,
          "401": 0.9076670408248901,
          "402": 0.06420949846506119,
          "403": -0.7064195275306702,
          "404": -1.711801528930664,
          "405": 2.1433372497558594,
          "406": 2.63206148147583,
          "407": -2.4072213172912598,
          "408": -2.3149657249450684,
          "409": 0.16464130580425262,
          "410": -0.1743375062942505,
          "411": -2.2396271228790283,
          "412": 1.5739285945892334,
          "413": -0.2643033564090729,
          "414": -1.3526530265808105,
          "415": -0.5559070110321045,
          "416": 0.15749000012874603,
          "417": 1.8210737705230713,
          "418": 1.385964035987854,
          "419": 0.4992613196372986,
          "420": -0.86506187915802,
          "421": 2.736137866973877,
          "422": -0.581964910030365,
          "423": 0.8957629799842834,
          "424": -1.4020423889160156,
          "425": 1.5072813034057617,
          "426": 1.000705599784851,
          "427": -3.2869927883148193,
          "428": -1.2894527912139893,
          "429": -1.1797844171524048,
          "430": 4.359461307525635,
          "431": 0.05897913873195648,
          "432": -0.20366515219211578,
          "433": 1.1277557611465454,
          "434": 1.1210538148880005,
          "435": 1.218691110610962,
          "436": -3.4700186252593994,
          "437": 1.054216742515564,
          "438": 1.0576452016830444,
          "439": 0.9889666438102722,
          "440": 0.638443648815155,
          "441": 0.029903514310717583,
          "442": -0.6076893210411072,
          "443": -0.4199065566062927,
          "444": 0.6599924564361572,
          "445": -3.16562819480896,
          "446": 1.1961122751235962,
          "447": -0.6904953122138977,
          "448": -3.3496389389038086,
          "449": -0.5405007004737854,
          "450": 0.6312893629074097,
          "451": -2.1477439403533936,
          "452": -0.8883344531059265,
          "453": 1.6961085796356201,
          "454": 0.42567142844200134,
          "455": 0.4836437702178955,
          "456": -0.5795263051986694,
          "457": -1.004846215248108,
          "458": 0.022342797368764877,
          "459": 0.6956741213798523,
          "460": -0.04187967628240585,
          "461": 0.41652411222457886,
          "462": -1.0017632246017456,
          "463": -1.8472504615783691,
          "464": 0.898095965385437,
          "465": 1.2509104013442993,
          "466": 1.5155978202819824,
          "467": 0.5090613961219788,
          "468": -0.7106520533561707,
          "469": -1.1913326978683472,
          "470": -3.997274398803711,
          "471": 0.3398532569408417,
          "472": -1.6808055639266968,
          "473": 0.8036227822303772,
          "474": 5.143588542938232,
          "475": 0.5862879753112793,
          "476": 1.07837975025177,
          "477": 3.605881452560425,
          "478": 3.5315213203430176,
          "479": 1.5193547010421753,
          "480": 1.5720041990280151,
          "481": -0.7050793170928955,
          "482": 0.8761574029922485,
          "483": 1.3226909637451172,
          "484": -0.4348519742488861,
          "485": 0.34570950269699097,
          "486": 0.9344576001167297,
          "487": -1.758900761604309,
          "488": 0.734973669052124,
          "489": 0.44766366481781006,
          "490": 0.21860551834106445,
          "491": -0.1634613573551178,
          "492": -2.6919500827789307,
          "493": -0.1431386023759842,
          "494": 1.03889799118042,
          "495": 1.7461084127426147,
          "496": 0.5525829195976257,
          "497": 2.3332650661468506,
          "498": 1.0081287622451782,
          "499": 1.1239649057388306,
          "500": 0.5016264319419861,
          "501": 1.3461129665374756,
          "502": -2.2791690826416016,
          "503": 0.42359358072280884,
          "504": 2.501497507095337,
          "505": 0.9489127993583679,
          "506": 2.5512168407440186,
          "507": -3.829134941101074,
          "508": 1.4543417692184448,
          "509": -0.38014212250709534,
          "510": 0.4844408333301544,
          "511": 0.5648607611656189,
          "512": 2.9164113998413086,
          "513": -0.09649287909269333,
          "514": -0.6390143036842346,
          "515": 1.1621752977371216,
          "516": -0.4175882935523987,
          "517": 0.26841193437576294,
          "518": 1.41358482837677,
          "519": -1.5270236730575562,
          "520": -0.5285120010375977,
          "521": 2.8306915760040283,
          "522": 2.550644874572754,
          "523": -0.4252680838108063,
          "524": 1.5426315069198608,
          "525": 1.5756281614303589,
          "526": -1.0368911027908325,
          "527": -0.6464301347732544,
          "528": -0.6771002411842346,
          "529": -2.4762814044952393,
          "530": 0.6828116178512573,
          "531": 0.4333738386631012,
          "532": -1.076099157333374,
          "533": 1.27765953540802,
          "534": 0.31014639139175415,
          "535": -1.820021390914917,
          "536": -0.12499312311410904,
          "537": 1.0457206964492798,
          "538": 1.6814861297607422,
          "539": -1.186131477355957,
          "540": -0.9243472814559937,
          "541": -0.3306637406349182,
          "542": -2.5719711780548096,
          "543": 0.2660313844680786,
          "544": -1.5209598541259766,
          "545": -0.4316261410713196,
          "546": 0.5095306634902954,
          "547": 0.27683505415916443,
          "548": -1.4042236804962158,
          "549": 1.17757248878479,
          "550": -0.9014589190483093,
          "551": 1.6652852296829224,
          "552": -0.9195796251296997,
          "553": -2.1895408630371094,
          "554": -0.29183781147003174,
          "555": 0.12300227582454681,
          "556": -0.22346216440200806,
          "557": -0.5989454984664917,
          "558": 0.4988398849964142,
          "559": 1.5812313556671143,
          "560": 0.27336880564689636,
          "561": -1.3583948612213135,
          "562": -1.2493265867233276,
          "563": -1.6553481817245483,
          "564": 0.08487214893102646,
          "565": -2.827125310897827,
          "566": 2.3653578758239746,
          "567": 1.3564239740371704,
          "568": 0.28045958280563354,
          "569": 0.7281204462051392,
          "570": 2.2287399768829346,
          "571": 1.3929696083068848,
          "572": 1.4207913875579834,
          "573": 0.7917200326919556,
          "574": -1.8200485706329346,
          "575": 1.5363157987594604,
          "576": 0.19780224561691284,
          "577": -0.9608529210090637,
          "578": 0.03132680431008339,
          "579": 0.6622700095176697,
          "580": -2.488367795944214,
          "581": 2.823776960372925,
          "582": -0.9261937737464905,
          "583": 0.5119768977165222,
          "584": 1.199163556098938,
          "585": -3.362820863723755,
          "586": 1.552391767501831,
          "587": 1.5625519752502441,
          "588": 3.124502658843994,
          "589": 1.3819379806518555,
          "590": -1.549833059310913,
          "591": 0.4796910285949707,
          "592": -0.795867383480072,
          "593": -0.7065064907073975,
          "594": -0.4590481221675873,
          "595": 1.0869561433792114,
          "596": 0.07404950261116028,
          "597": 0.07671097666025162,
          "598": 3.5706489086151123,
          "599": -0.15213395655155182,
          "600": -1.973975658416748,
          "601": -0.23847660422325134,
          "602": -1.72930109500885,
          "603": -0.683201789855957,
          "604": -1.0371768474578857,
          "605": 0.11173969507217407,
          "606": -0.6769081354141235,
          "607": 2.0826258659362793,
          "608": 1.0100938081741333,
          "609": -2.1106958389282227,
          "610": -5.1674299240112305,
          "611": -0.6027666330337524,
          "612": 0.0891914963722229,
          "613": 0.7134271860122681,
          "614": 1.5747188329696655,
          "615": 1.7144407033920288,
          "616": -0.11940310895442963,
          "617": -2.3700242042541504,
          "618": -0.025576798245310783,
          "619": 1.0234750509262085
        }
      },
      "inputHidden": {
        "rows": 20,
        "columns": 20,
        "weights": {
          "0": -5.099254608154297,
          "1": 4.925457954406738,
          "2": 1.0420434474945068,
          "3": 0.3085375428199768,
          "4": 3.6482925415039062,
          "5": 0.8362672328948975,
          "6": 2.0100395679473877,
          "7": 0.024555789306759834,
          "8": 3.9574897289276123,
          "9": 0.8467583656311035,
          "10": 0.03078748658299446,
          "11": 0.8101354837417603,
          "12": -4.602984428405762,
          "13": -0.8991221785545349,
          "14": 1.2292133569717407,
          "15": 2.8761563301086426,
          "16": 1.4692164659500122,
          "17": -1.8128242492675781,
          "18": 1.3712913990020752,
          "19": -0.7181949615478516,
          "20": 2.5279226303100586,
          "21": -2.5764434337615967,
          "22": -0.724968433380127,
          "23": 3.556576728820801,
          "24": -3.277935028076172,
          "25": 1.8880385160446167,
          "26": -3.633596420288086,
          "27": -2.445697069168091,
          "28": -2.0626120567321777,
          "29": 2.7880334854125977,
          "30": 2.862304210662842,
          "31": 2.542233943939209,
          "32": 2.4605531692504883,
          "33": -0.3415667712688446,
          "34": -3.8520045280456543,
          "35": -2.726339817047119,
          "36": -0.5481653809547424,
          "37": 0.44050753116607666,
          "38": 0.25720715522766113,
          "39": -2.722442865371704,
          "40": -1.3615014553070068,
          "41": -0.3532203733921051,
          "42": 0.6671612858772278,
          "43": -2.1957597732543945,
          "44": -1.9612213373184204,
          "45": -2.6596264839172363,
          "46": 3.13124680519104,
          "47": -1.6180617809295654,
          "48": 3.6275835037231445,
          "49": 2.9444491863250732,
          "50": 0.8408387899398804,
          "51": -3.745018720626831,
          "52": -1.6704182624816895,
          "53": 2.035792112350464,
          "54": -0.726008951663971,
          "55": 1.749119758605957,
          "56": -3.723362922668457,
          "57": 0.5362403392791748,
          "58": -0.2361317127943039,
          "59": 3.4502742290496826,
          "60": 0.3364108204841614,
          "61": -0.12099417299032211,
          "62": 1.3929167985916138,
          "63": 0.9559310674667358,
          "64": 1.1496986150741577,
          "65": -1.1574252843856812,
          "66": -0.7167564034461975,
          "67": 0.1826641857624054,
          "68": 2.1954524517059326,
          "69": -2.5391905307769775,
          "70": -1.7719591856002808,
          "71": 0.43431177735328674,
          "72": 1.2449547052383423,
          "73": 0.8508137464523315,
          "74": 1.506767749786377,
          "75": -0.8872225880622864,
          "76": -1.096869945526123,
          "77": -0.21114259958267212,
          "78": 1.3511545658111572,
          "79": 0.04365619644522667,
          "80": 0.6602848172187805,
          "81": 1.3895660638809204,
          "82": 0.7226227521896362,
          "83": -0.5219958424568176,
          "84": -1.0945409536361694,
          "85": 0.4683525562286377,
          "86": -0.05283645540475845,
          "87": -0.9907398223876953,
          "88": 1.2845592498779297,
          "89": -3.270524263381958,
          "90": 1.016343593597412,
          "91": 0.5657075643539429,
          "92": 0.8207313418388367,
          "93": 1.6724576950073242,
          "94": -1.970560073852539,
          "95": 1.023642659187317,
          "96": -0.23971687257289886,
          "97": 1.4909024238586426,
          "98": -0.32762202620506287,
          "99": 1.3697048425674438,
          "100": -0.32559293508529663,
          "101": -1.6157032251358032,
          "102": 3.2771284580230713,
          "103": -3.65950870513916,
          "104": 4.661067485809326,
          "105": 0.9826592803001404,
          "106": -0.15934327244758606,
          "107": -5.2697978019714355,
          "108": -2.11948561668396,
          "109": -4.07709264755249,
          "110": -1.6119621992111206,
          "111": 2.1041412353515625,
          "112": 0.027631042525172234,
          "113": -1.8274375200271606,
          "114": -5.036442756652832,
          "115": -0.9816499352455139,
          "116": 1.014411449432373,
          "117": -1.036171793937683,
          "118": 0.7735113501548767,
          "119": 0.9125638604164124,
          "120": 1.6489518880844116,
          "121": 4.413609504699707,
          "122": 5.827387809753418,
          "123": 2.5356216430664062,
          "124": 1.8190017938613892,
          "125": -3.1379401683807373,
          "126": 3.913374423980713,
          "127": 2.8654074668884277,
          "128": -0.1850133240222931,
          "129": -0.23381736874580383,
          "130": 0.8034332990646362,
          "131": 0.7964245080947876,
          "132": -1.0815086364746094,
          "133": -1.3606358766555786,
          "134": 3.163813829421997,
          "135": -1.9007271528244019,
          "136": 0.07236579060554504,
          "137": -1.322872519493103,
          "138": -1.0378342866897583,
          "139": -3.178313970565796,
          "140": 1.1445553302764893,
          "141": -0.3128099739551544,
          "142": -1.0177712440490723,
          "143": 5.114618301391602,
          "144": -0.12453587353229523,
          "145": -1.542056679725647,
          "146": 0.26810482144355774,
          "147": 3.66090989112854,
          "148": 1.4572886228561401,
          "149": 0.4954143166542053,
          "150": 1.6473361253738403,
          "151": 2.768105983734131,
          "152": 2.61226224899292,
          "153": -3.8250057697296143,
          "154": 3.386368751525879,
          "155": 0.1533304750919342,
          "156": -0.3568427264690399,
          "157": 2.0564029216766357,
          "158": -2.5643725395202637,
          "159": -3.036389112472534,
          "160": -2.3048501014709473,
          "161": -0.1434800624847412,
          "162": -0.20040448009967804,
          "163": -3.1724002361297607,
          "164": -2.776049852371216,
          "165": 3.4421558380126953,
          "166": 0.13699038326740265,
          "167": -2.6130874156951904,
          "168": 3.6218349933624268,
          "169": -2.6166651248931885,
          "170": -2.0046236515045166,
          "171": -0.9678450226783752,
          "172": -3.8120667934417725,
          "173": -0.13961732387542725,
          "174": -5.2956929206848145,
          "175": 1.3586313724517822,
          "176": -1.7024160623550415,
          "177": -0.2578813433647156,
          "178": -3.5606749057769775,
          "179": -1.5362281799316406,
          "180": 0.30879828333854675,
          "181": 2.8580143451690674,
          "182": 1.5843113660812378,
          "183": 3.06784725189209,
          "184": -0.233901247382164,
          "185": 0.9650604724884033,
          "186": 1.507956862449646,
          "187": 1.0825109481811523,
          "188": 1.749069333076477,
          "189": -0.6097880005836487,
          "190": 5.163201808929443,
          "191": 3.5393197536468506,
          "192": 1.6695009469985962,
          "193": -1.0647577047348022,
          "194": 1.4619909524917603,
          "195": -3.4997494220733643,
          "196": 0.463552325963974,
          "197": 2.7463631629943848,
          "198": 1.205270767211914,
          "199": 2.9142916202545166,
          "200": -0.9719293713569641,
          "201": -2.500142812728882,
          "202": -1.8404347896575928,
          "203": 1.7496514320373535,
          "204": -0.47812342643737793,
          "205": 1.0933341979980469,
          "206": 1.0167007446289062,
          "207": -0.9795600771903992,
          "208": 3.4038150310516357,
          "209": -0.9390352368354797,
          "210": 1.4628535509109497,
          "211": -0.32458439469337463,
          "212": -1.0242327451705933,
          "213": 0.06011368706822395,
          "214": -0.29667577147483826,
          "215": -3.0370419025421143,
          "216": 0.6633034348487854,
          "217": 0.9657921195030212,
          "218": 0.9730525612831116,
          "219": -0.5683489441871643,
          "220": -1.084359884262085,
          "221": 3.1455671787261963,
          "222": 0.6329801678657532,
          "223": 0.125308558344841,
          "224": -1.362471103668213,
          "225": -1.3579810857772827,
          "226": 0.6469733119010925,
          "227": 0.5274582505226135,
          "228": 0.910031795501709,
          "229": -0.5575582981109619,
          "230": -0.07046349346637726,
          "231": -1.213673710823059,
          "232": -2.6994993686676025,
          "233": -1.615980625152588,
          "234": 0.8006637692451477,
          "235": 2.4489121437072754,
          "236": 2.664895534515381,
          "237": 0.602867066860199,
          "238": -0.25279203057289124,
          "239": -1.6802823543548584,
          "240": -0.2991093397140503,
          "241": 0.11531165987253189,
          "242": 3.060436725616455,
          "243": 1.583809733390808,
          "244": -3.069725513458252,
          "245": -5.44542121887207,
          "246": 2.916194200515747,
          "247": -0.43129026889801025,
          "248": -0.6573788523674011,
          "249": 0.40872323513031006,
          "250": -3.8167049884796143,
          "251": -0.936043381690979,
          "252": -3.1239733695983887,
          "253": 0.9154097437858582,
          "254": 2.243762969970703,
          "255": 1.0162476301193237,
          "256": 2.7924880981445312,
          "257": -1.3623732328414917,
          "258": -2.048405885696411,
          "259": -3.765402317047119,
          "260": 1.1132336854934692,
          "261": -1.0514196157455444,
          "262": 0.3280656635761261,
          "263": -1.3791793584823608,
          "264": -2.4454238414764404,
          "265": 0.7401906847953796,
          "266": 0.7899984121322632,
          "267": 0.11892064660787582,
          "268": -0.4925243556499481,
          "269": 0.4780856668949127,
          "270": -0.2228626310825348,
          "271": 2.5775392055511475,
          "272": -1.8342881202697754,
          "273": -1.7589237689971924,
          "274": -0.08596114069223404,
          "275": -2.1624252796173096,
          "276": 0.3063782751560211,
          "277": 0.19849132001399994,
          "278": -1.2452696561813354,
          "279": 1.1360620260238647,
          "280": 0.7372454404830933,
          "281": 0.11504384130239487,
          "282": 2.4814248085021973,
          "283": -0.5415935516357422,
          "284": -0.8146739602088928,
          "285": 1.2188588380813599,
          "286": 2.9895715713500977,
          "287": -0.689112663269043,
          "288": 1.7969638109207153,
          "289": 3.1765754222869873,
          "290": -5.26023006439209,
          "291": -0.20055566728115082,
          "292": 2.055581569671631,
          "293": 0.5165242552757263,
          "294": 1.9049012660980225,
          "295": 0.6717976927757263,
          "296": 2.44779372215271,
          "297": -2.6866447925567627,
          "298": -1.3875877857208252,
          "299": -0.33672860264778137,
          "300": 0.4043062925338745,
          "301": -0.4687348008155823,
          "302": -0.21716950833797455,
          "303": -1.4897569417953491,
          "304": -2.7075366973876953,
          "305": -1.6173903942108154,
          "306": 1.6456323862075806,
          "307": -0.9126410484313965,
          "308": 1.6262832880020142,
          "309": -2.6140129566192627,
          "310": 1.439540982246399,
          "311": 0.6747426390647888,
          "312": -0.002865514485165477,
          "313": -0.41161349415779114,
          "314": 1.1440150737762451,
          "315": -0.5567967891693115,
          "316": -0.12104874849319458,
          "317": 1.3047376871109009,
          "318": -0.19904884696006775,
          "319": 1.1247602701187134,
          "320": -0.025212876498699188,
          "321": 0.5686424374580383,
          "322": -0.9333638548851013,
          "323": 0.615845263004303,
          "324": -2.7553393840789795,
          "325": 0.40493717789649963,
          "326": 0.7543672323226929,
          "327": 0.0014270595274865627,
          "328": 2.253786325454712,
          "329": 0.6100061535835266,
          "330": -0.7585992217063904,
          "331": -0.6778320670127869,
          "332": -0.022017113864421844,
          "333": -1.0722576379776,
          "334": 0.35490521788597107,
          "335": -0.4878818392753601,
          "336": -1.3865714073181152,
          "337": -0.051956210285425186,
          "338": 1.6584349870681763,
          "339": 0.12482333183288574,
          "340": 1.5527441501617432,
          "341": 2.99184513092041,
          "342": 1.8929492235183716,
          "343": 1.7174656391143799,
          "344": -1.6694494485855103,
          "345": -1.2389500141143799,
          "346": 1.7079756259918213,
          "347": 2.2785444259643555,
          "348": -3.0128705501556396,
          "349": -1.3113945722579956,
          "350": 0.46722039580345154,
          "351": -1.1832185983657837,
          "352": 2.880540132522583,
          "353": -0.42408400774002075,
          "354": 0.0526704341173172,
          "355": -1.5589008331298828,
          "356": -0.312405526638031,
          "357": -2.8820300102233887,
          "358": -1.975943684577942,
          "359": -4.335699558258057,
          "360": -0.08294564485549927,
          "361": -1.240678310394287,
          "362": -1.8319793939590454,
          "363": 0.13221600651741028,
          "364": 1.2060203552246094,
          "365": -0.26873424649238586,
          "366": -1.8536524772644043,
          "367": -1.1044318675994873,
          "368": -0.5627151727676392,
          "369": 0.4415600597858429,
          "370": 0.327303022146225,
          "371": -0.8200660943984985,
          "372": 0.8336668014526367,
          "373": -1.2367583513259888,
          "374": -0.16932827234268188,
          "375": 1.9125645160675049,
          "376": -0.6332905292510986,
          "377": 1.7284486293792725,
          "378": 0.4647177755832672,
          "379": -0.6658101081848145,
          "380": -3.0593316555023193,
          "381": 0.2701851725578308,
          "382": -2.27547550201416,
          "383": 1.440760612487793,
          "384": 1.3341350555419922,
          "385": 3.7927558422088623,
          "386": -2.0273008346557617,
          "387": -2.0951364040374756,
          "388": 1.8519458770751953,
          "389": -2.054147720336914,
          "390": 1.3392431735992432,
          "391": 1.1411666870117188,
          "392": 0.8232399225234985,
          "393": -1.2604249715805054,
          "394": -0.0916651263833046,
          "395": 3.185434341430664,
          "396": 2.3924970626831055,
          "397": 0.5652769804000854,
          "398": -0.19112728536128998,
          "399": 1.426210880279541
        }
      },
      "inputBias": {
        "rows": 20,
        "columns": 1,
        "weights": {
          "0": -2.137158155441284,
          "1": -0.12394845485687256,
          "2": 0.3007315695285797,
          "3": 0.013896241784095764,
          "4": -0.39977654814720154,
          "5": 1.8784626722335815,
          "6": 0.40320953726768494,
          "7": -0.1215541660785675,
          "8": 0.12314298748970032,
          "9": -1.666010856628418,
          "10": -0.03894445300102234,
          "11": 3.6234521865844727,
          "12": -1.7749695777893066,
          "13": 1.8605198860168457,
          "14": -0.0327366404235363,
          "15": -0.3296586573123932,
          "16": 0.7848036885261536,
          "17": 0.25354713201522827,
          "18": -0.5651876330375671,
          "19": -1.4717605113983154
        }
      },
      "forgetMatrix": {
        "rows": 20,
        "columns": 31,
        "weights": {
          "0": 0.645012617111206,
          "1": -1.7891597747802734,
          "2": 2.6875345706939697,
          "3": -0.4299176335334778,
          "4": -0.7784734964370728,
          "5": -0.9450682401657104,
          "6": -0.9848130941390991,
          "7": -1.416905403137207,
          "8": -0.03878597542643547,
          "9": 3.5996415615081787,
          "10": 0.4342711269855499,
          "11": -0.3591805100440979,
          "12": 0.8837184906005859,
          "13": 1.1873303651809692,
          "14": -0.37258481979370117,
          "15": -1.1243480443954468,
          "16": 0.08836977183818817,
          "17": -1.3824609518051147,
          "18": 2.906403064727783,
          "19": 0.04550972580909729,
          "20": 0.6626999378204346,
          "21": 0.053998567163944244,
          "22": -0.806649923324585,
          "23": 3.16348934173584,
          "24": 1.208898663520813,
          "25": -0.3461681008338928,
          "26": -1.6435564756393433,
          "27": 0.5418136715888977,
          "28": 0.12978941202163696,
          "29": 1.7220121622085571,
          "30": 2.8079440593719482,
          "31": 0.7061055302619934,
          "32": 4.895565032958984,
          "33": -0.07747412472963333,
          "34": 0.5354771614074707,
          "35": -0.9812378287315369,
          "36": 0.11079905927181244,
          "37": -3.4694056510925293,
          "38": -0.1960044503211975,
          "39": -0.7593291401863098,
          "40": 2.3422257900238037,
          "41": -0.09697294235229492,
          "42": -0.789573609828949,
          "43": 3.932887315750122,
          "44": 2.981337070465088,
          "45": 0.8143655061721802,
          "46": 0.8307195901870728,
          "47": 2.1498444080352783,
          "48": -0.8633694052696228,
          "49": -0.016701441258192062,
          "50": 1.2039645910263062,
          "51": -0.3188551366329193,
          "52": 1.548668384552002,
          "53": -0.6786800026893616,
          "54": -0.5569792985916138,
          "55": -0.1247590184211731,
          "56": -0.5707467198371887,
          "57": -0.10720314830541611,
          "58": 1.4190315008163452,
          "59": 1.4248942136764526,
          "60": 0.7605243921279907,
          "61": -0.6077417135238647,
          "62": -0.0391286201775074,
          "63": 0.45429113507270813,
          "64": -0.26632365584373474,
          "65": -2.5487184524536133,
          "66": 0.8513423800468445,
          "67": 2.0419461727142334,
          "68": 1.2701514959335327,
          "69": 2.461447238922119,
          "70": 0.13974517583847046,
          "71": -0.2842773497104645,
          "72": -2.7283241748809814,
          "73": 1.4818049669265747,
          "74": -1.804366946220398,
          "75": -0.7786989808082581,
          "76": -0.7593587636947632,
          "77": -1.024512767791748,
          "78": 1.9960204362869263,
          "79": -0.06937374919652939,
          "80": -1.1056253910064697,
          "81": -0.18593905866146088,
          "82": -1.865655779838562,
          "83": -0.17419077455997467,
          "84": 1.4398196935653687,
          "85": -1.1550027132034302,
          "86": 2.0834403038024902,
          "87": 0.6389394998550415,
          "88": 1.3131009340286255,
          "89": -0.3160074055194855,
          "90": -2.226557731628418,
          "91": -0.20338578522205353,
          "92": -3.032548666000366,
          "93": 0.6645420789718628,
          "94": 3.2872869968414307,
          "95": 0.3147895634174347,
          "96": 0.3989245295524597,
          "97": 1.0682601928710938,
          "98": 1.288701057434082,
          "99": -0.20684814453125,
          "100": 0.8333739638328552,
          "101": 0.8093611001968384,
          "102": 0.6886551380157471,
          "103": -0.41372963786125183,
          "104": -0.2407994568347931,
          "105": -0.2164446860551834,
          "106": 1.2506779432296753,
          "107": 0.8806337714195251,
          "108": 1.8680946826934814,
          "109": 0.2619346082210541,
          "110": 1.2215405702590942,
          "111": -1.0811357498168945,
          "112": 1.0758092403411865,
          "113": 1.0294411182403564,
          "114": 5.019658088684082,
          "115": 1.2920596599578857,
          "116": -0.5804450511932373,
          "117": 0.32439038157463074,
          "118": -0.11576975882053375,
          "119": 1.1798175573349,
          "120": -0.5205418467521667,
          "121": 1.501918911933899,
          "122": -1.034217119216919,
          "123": -0.7267816662788391,
          "124": 0.18808671832084656,
          "125": -2.9905948638916016,
          "126": -2.3133716583251953,
          "127": -0.8660314679145813,
          "128": 2.241340398788452,
          "129": -0.05669603869318962,
          "130": 0.9066901206970215,
          "131": 1.0491886138916016,
          "132": -1.2246971130371094,
          "133": -0.642618715763092,
          "134": -0.18035489320755005,
          "135": 0.19785353541374207,
          "136": -2.9173293113708496,
          "137": -2.9586775302886963,
          "138": -0.5809073448181152,
          "139": -1.6152442693710327,
          "140": -1.9466959238052368,
          "141": -0.6188434362411499,
          "142": 1.0726882219314575,
          "143": 1.1832590103149414,
          "144": 0.7895811200141907,
          "145": -0.08427970856428146,
          "146": 0.7405552864074707,
          "147": 0.7182806730270386,
          "148": 2.3292949199676514,
          "149": 0.9610320329666138,
          "150": -0.45333603024482727,
          "151": 0.08170114457607269,
          "152": -0.16249658167362213,
          "153": -2.2590532302856445,
          "154": -0.9934877157211304,
          "155": -0.670678973197937,
          "156": 1.408730387687683,
          "157": 2.0358591079711914,
          "158": 1.0690011978149414,
          "159": 0.16673031449317932,
          "160": -0.26495361328125,
          "161": -0.3410804271697998,
          "162": 0.10672570765018463,
          "163": 0.543506920337677,
          "164": 0.2586773633956909,
          "165": 0.9682635068893433,
          "166": -2.5861685276031494,
          "167": 0.4628341495990753,
          "168": 2.2248852252960205,
          "169": -0.34736186265945435,
          "170": 1.7351816892623901,
          "171": 0.7873145937919617,
          "172": 0.36736223101615906,
          "173": 2.0993106365203857,
          "174": -1.0706288814544678,
          "175": -2.2491533756256104,
          "176": 2.3794777393341064,
          "177": -1.1972230672836304,
          "178": 0.09795689582824707,
          "179": 0.10608958452939987,
          "180": 0.7639699578285217,
          "181": 0.46253299713134766,
          "182": 0.36728423833847046,
          "183": -0.8875432014465332,
          "184": 1.5881247520446777,
          "185": 3.192545175552368,
          "186": -1.0171393156051636,
          "187": 0.8046671152114868,
          "188": 2.22290301322937,
          "189": -1.3301169872283936,
          "190": -1.0219318866729736,
          "191": -1.0209027528762817,
          "192": 1.3173223733901978,
          "193": -0.6347521543502808,
          "194": 1.4049174785614014,
          "195": -1.0257898569107056,
          "196": 0.9366328716278076,
          "197": -0.04753943160176277,
          "198": 0.1550574153661728,
          "199": 0.2645038962364197,
          "200": 0.601076602935791,
          "201": 1.8809713125228882,
          "202": -1.6983940601348877,
          "203": 1.3870145082473755,
          "204": -0.12519748508930206,
          "205": -2.4263415336608887,
          "206": -1.9256105422973633,
          "207": 0.3705234229564667,
          "208": -1.6077451705932617,
          "209": 3.7738611698150635,
          "210": 0.22862397134304047,
          "211": 0.588149905204773,
          "212": 0.7260523438453674,
          "213": -1.012961506843567,
          "214": 0.6212104558944702,
          "215": 0.7465717196464539,
          "216": 3.1170170307159424,
          "217": 1.2173256874084473,
          "218": 1.4190133810043335,
          "219": 2.366849422454834,
          "220": -0.738749086856842,
          "221": -0.41320934891700745,
          "222": 0.44841307401657104,
          "223": -0.15751267969608307,
          "224": -0.24606312811374664,
          "225": 1.3144673109054565,
          "226": 1.5075827836990356,
          "227": -1.1157892942428589,
          "228": -0.6453818678855896,
          "229": 0.8119400143623352,
          "230": 2.723966121673584,
          "231": 0.6226266622543335,
          "232": 1.515823483467102,
          "233": 1.790152668952942,
          "234": 0.8489344120025635,
          "235": 0.1413470208644867,
          "236": -1.8742223978042603,
          "237": -1.29533052444458,
          "238": 0.8895884156227112,
          "239": 0.03410296514630318,
          "240": 1.4761104583740234,
          "241": 0.7187801599502563,
          "242": -0.1456594318151474,
          "243": 0.4761974811553955,
          "244": 1.0233327150344849,
          "245": -0.35667240619659424,
          "246": 0.17990562319755554,
          "247": 0.4323827624320984,
          "248": -0.6866599321365356,
          "249": -2.983936071395874,
          "250": 0.10558909177780151,
          "251": 2.1140663623809814,
          "252": -0.4145301580429077,
          "253": -3.118421792984009,
          "254": 0.9143075942993164,
          "255": -1.2080378532409668,
          "256": -0.773704469203949,
          "257": -0.38654813170433044,
          "258": -0.10321808606386185,
          "259": -0.7735177278518677,
          "260": -0.601582407951355,
          "261": -0.5051055550575256,
          "262": 1.2447352409362793,
          "263": 0.6569806337356567,
          "264": -1.566299319267273,
          "265": -0.24274122714996338,
          "266": 2.960928440093994,
          "267": -1.7921886444091797,
          "268": 1.0113240480422974,
          "269": -2.0240252017974854,
          "270": -1.5873254537582397,
          "271": 0.6533376574516296,
          "272": -0.4577997624874115,
          "273": -1.5798271894454956,
          "274": -0.5578598976135254,
          "275": 2.165012836456299,
          "276": 1.5945783853530884,
          "277": 0.09776751697063446,
          "278": 1.6596806049346924,
          "279": -1.8198175430297852,
          "280": 0.1491767168045044,
          "281": -1.5322016477584839,
          "282": 0.331489622592926,
          "283": 0.8547089099884033,
          "284": 1.4821642637252808,
          "285": 0.9204115867614746,
          "286": -1.9877922534942627,
          "287": 0.06992052495479584,
          "288": -2.825470209121704,
          "289": 0.36121129989624023,
          "290": -0.5306289196014404,
          "291": 1.2132207155227661,
          "292": 0.05069752782583237,
          "293": -0.7945735454559326,
          "294": -1.7919259071350098,
          "295": 1.6685434579849243,
          "296": -2.6112844944000244,
          "297": -1.923371434211731,
          "298": -0.21202775835990906,
          "299": 0.7230633497238159,
          "300": 0.8363279700279236,
          "301": -0.08296743780374527,
          "302": -2.3617031574249268,
          "303": 0.020793145522475243,
          "304": -0.2645796537399292,
          "305": -2.927483320236206,
          "306": 2.395414113998413,
          "307": 1.320914387702942,
          "308": -2.42958927154541,
          "309": -0.2403945028781891,
          "310": 0.2383381724357605,
          "311": 2.5330467224121094,
          "312": 1.565342903137207,
          "313": 0.498416543006897,
          "314": -1.8305513858795166,
          "315": -0.428041934967041,
          "316": -1.1168349981307983,
          "317": -0.4410476088523865,
          "318": 2.10009503364563,
          "319": 0.38523250818252563,
          "320": 0.4296267628669739,
          "321": -2.176835060119629,
          "322": 2.3841841220855713,
          "323": 2.839909315109253,
          "324": 1.7781791687011719,
          "325": 1.7803117036819458,
          "326": 0.9283216595649719,
          "327": 0.3645782172679901,
          "328": 0.39282485842704773,
          "329": 0.7821078300476074,
          "330": -0.2741498351097107,
          "331": 0.7929123044013977,
          "332": -1.0141401290893555,
          "333": -0.2801218032836914,
          "334": -3.305732011795044,
          "335": -0.9130920767784119,
          "336": 0.8216168880462646,
          "337": -0.5954548120498657,
          "338": 0.5380550026893616,
          "339": 1.0411951541900635,
          "340": 2.894486904144287,
          "341": 0.44266605377197266,
          "342": -0.4531406760215759,
          "343": 0.9216141104698181,
          "344": 0.37209388613700867,
          "345": 0.7710583209991455,
          "346": -2.6945903301239014,
          "347": 1.5352272987365723,
          "348": -3.1423466205596924,
          "349": -0.4324439465999603,
          "350": -1.937885046005249,
          "351": 0.03540104255080223,
          "352": -0.04785735160112381,
          "353": 0.10125762224197388,
          "354": 0.8429723978042603,
          "355": -1.3728197813034058,
          "356": -0.18913504481315613,
          "357": -2.4849071502685547,
          "358": -0.6205658912658691,
          "359": 0.6732093095779419,
          "360": -3.175673723220825,
          "361": 0.8100363612174988,
          "362": 1.9666540622711182,
          "363": -3.0448591709136963,
          "364": 0.8335449695587158,
          "365": 0.4247039258480072,
          "366": -0.5841389894485474,
          "367": -0.8294500112533569,
          "368": -0.18372765183448792,
          "369": 2.10382080078125,
          "370": -0.7689051628112793,
          "371": 1.5925102233886719,
          "372": -0.6556403636932373,
          "373": 1.38416588306427,
          "374": -0.39898452162742615,
          "375": 3.283041477203369,
          "376": -0.28678813576698303,
          "377": -1.510733962059021,
          "378": -0.9220234155654907,
          "379": -2.3392069339752197,
          "380": -0.11248162388801575,
          "381": -3.234710693359375,
          "382": 2.1989474296569824,
          "383": -0.4376104176044464,
          "384": 1.2881323099136353,
          "385": 0.7165910005569458,
          "386": -0.6203744411468506,
          "387": -0.8546553254127502,
          "388": 0.2914271950721741,
          "389": -0.8650151491165161,
          "390": -1.005135416984558,
          "391": -0.4904499650001526,
          "392": 0.32852986454963684,
          "393": 1.2117702960968018,
          "394": -2.6383566856384277,
          "395": -1.3707417249679565,
          "396": -4.849060535430908,
          "397": -1.3787062168121338,
          "398": -1.8784019947052002,
          "399": 0.4530923068523407,
          "400": 0.5011483430862427,
          "401": -0.9464365243911743,
          "402": 2.2660019397735596,
          "403": -1.898518443107605,
          "404": 1.139311671257019,
          "405": 0.08504460006952286,
          "406": -0.028974832966923714,
          "407": 0.0789957270026207,
          "408": 0.889757513999939,
          "409": 0.6343315243721008,
          "410": 0.39152827858924866,
          "411": -0.07017535716295242,
          "412": -0.009446555748581886,
          "413": 0.20524828135967255,
          "414": 1.4783425331115723,
          "415": 0.5149396657943726,
          "416": 0.9837977290153503,
          "417": 0.39583176374435425,
          "418": 0.5321575999259949,
          "419": 2.7681686878204346,
          "420": 0.38080763816833496,
          "421": -2.2648329734802246,
          "422": -0.6948254704475403,
          "423": -2.9595699310302734,
          "424": -1.1013917922973633,
          "425": 0.4709887206554413,
          "426": -2.074856758117676,
          "427": 0.04670243710279465,
          "428": -2.022066354751587,
          "429": 0.8854406476020813,
          "430": 1.2730236053466797,
          "431": -0.24344542622566223,
          "432": -0.8265778422355652,
          "433": -0.2757907807826996,
          "434": -0.009080266579985619,
          "435": -2.3935136795043945,
          "436": -1.3896456956863403,
          "437": 0.19273966550827026,
          "438": 1.4734114408493042,
          "439": 0.25592464208602905,
          "440": -0.024571124464273453,
          "441": -0.21673522889614105,
          "442": -1.0906078815460205,
          "443": -1.2848069667816162,
          "444": 0.18716830015182495,
          "445": -1.0522258281707764,
          "446": -0.9109460711479187,
          "447": -0.8843222856521606,
          "448": -0.42271676659584045,
          "449": -1.0925018787384033,
          "450": 0.19110636413097382,
          "451": -0.6305420994758606,
          "452": -2.0769572257995605,
          "453": 1.7412959337234497,
          "454": -0.5972164869308472,
          "455": -1.1200683116912842,
          "456": -0.9777728319168091,
          "457": -2.6262269020080566,
          "458": -0.2622312605381012,
          "459": 0.21779514849185944,
          "460": -1.0024067163467407,
          "461": 0.0859547108411789,
          "462": -2.8197574615478516,
          "463": -2.8131771087646484,
          "464": -0.41561993956565857,
          "465": 0.28390154242515564,
          "466": -1.209539532661438,
          "467": 0.5640251040458679,
          "468": -1.9775810241699219,
          "469": 1.2786859273910522,
          "470": 0.32235005497932434,
          "471": 1.9854499101638794,
          "472": 0.709030032157898,
          "473": -0.9062380194664001,
          "474": 1.0969797372817993,
          "475": -1.7906970977783203,
          "476": 2.259056806564331,
          "477": -1.2140462398529053,
          "478": -2.214216709136963,
          "479": -2.521872043609619,
          "480": -0.6589990258216858,
          "481": -1.4561337232589722,
          "482": -0.2887696921825409,
          "483": 0.9569367170333862,
          "484": 0.7574166655540466,
          "485": 0.8917625546455383,
          "486": 1.4568638801574707,
          "487": 1.5891587734222412,
          "488": 1.1031445264816284,
          "489": 3.431875228881836,
          "490": 0.6008031368255615,
          "491": 0.9934462904930115,
          "492": 0.5881322622299194,
          "493": -1.1984189748764038,
          "494": -3.3033649921417236,
          "495": -0.5565157532691956,
          "496": 0.6599905490875244,
          "497": -2.728048801422119,
          "498": 0.21152444183826447,
          "499": -2.114128828048706,
          "500": 0.06725216656923294,
          "501": -2.2758114337921143,
          "502": 2.253852605819702,
          "503": -0.565396249294281,
          "504": -2.7967333793640137,
          "505": 0.6096290349960327,
          "506": -1.9191104173660278,
          "507": 1.0810188055038452,
          "508": -0.6139633655548096,
          "509": -1.0552102327346802,
          "510": -0.6651538610458374,
          "511": -0.9383419752120972,
          "512": -2.233229398727417,
          "513": -1.4806374311447144,
          "514": 2.2405335903167725,
          "515": -0.3201415240764618,
          "516": 0.3911287188529968,
          "517": -1.7986773252487183,
          "518": 0.15432743728160858,
          "519": 1.8867552280426025,
          "520": 1.3836932182312012,
          "521": -1.3088175058364868,
          "522": -2.072716474533081,
          "523": 1.2855833768844604,
          "524": 0.6263315677642822,
          "525": -0.5054112672805786,
          "526": 1.0747368335723877,
          "527": -1.9756120443344116,
          "528": -0.5337536334991455,
          "529": 0.6718036532402039,
          "530": 0.3423772156238556,
          "531": -0.44321420788764954,
          "532": 0.6345669031143188,
          "533": 0.25782153010368347,
          "534": 2.8851516246795654,
          "535": 0.7690304517745972,
          "536": 1.589279055595398,
          "537": -0.9401411414146423,
          "538": -1.442314624786377,
          "539": 1.81141197681427,
          "540": 0.5984253883361816,
          "541": -0.8486007452011108,
          "542": 3.111070156097412,
          "543": -0.35907354950904846,
          "544": 1.9111970663070679,
          "545": 0.4476220905780792,
          "546": -2.3688626289367676,
          "547": 2.2081639766693115,
          "548": -1.6789193153381348,
          "549": 3.346447467803955,
          "550": -0.2647154927253723,
          "551": -1.1758642196655273,
          "552": 0.32740190625190735,
          "553": 1.2179793119430542,
          "554": -0.17982885241508484,
          "555": 1.98689866065979,
          "556": -2.57159423828125,
          "557": -0.32214802503585815,
          "558": -1.010692834854126,
          "559": 2.253962993621826,
          "560": -0.8511499166488647,
          "561": -0.23026040196418762,
          "562": 0.2763872742652893,
          "563": 0.7531209588050842,
          "564": 0.23765483498573303,
          "565": 0.3927578628063202,
          "566": 1.33721125125885,
          "567": -3.216228485107422,
          "568": -0.23454202711582184,
          "569": 0.45705726742744446,
          "570": -0.39398816227912903,
          "571": 0.15521936118602753,
          "572": 0.8074960112571716,
          "573": 0.9017217755317688,
          "574": 1.2787293195724487,
          "575": 1.8900721073150635,
          "576": -1.853599190711975,
          "577": -0.5636371374130249,
          "578": -0.8086139559745789,
          "579": 0.6775987148284912,
          "580": 1.011931300163269,
          "581": -3.1504902839660645,
          "582": -1.0875301361083984,
          "583": 1.0533137321472168,
          "584": -0.026882220059633255,
          "585": -1.2085627317428589,
          "586": 0.43695250153541565,
          "587": -0.44170594215393066,
          "588": 0.25445547699928284,
          "589": 2.5967459678649902,
          "590": -1.2208741903305054,
          "591": -1.5069053173065186,
          "592": -1.2545320987701416,
          "593": 2.7709920406341553,
          "594": -1.6277446746826172,
          "595": 2.0624377727508545,
          "596": -0.4244113266468048,
          "597": -0.6666899919509888,
          "598": 1.3747572898864746,
          "599": -0.6305691003799438,
          "600": -1.9145426750183105,
          "601": -0.13282909989356995,
          "602": -0.7864189147949219,
          "603": -0.7362765073776245,
          "604": -2.0004560947418213,
          "605": 0.8715309500694275,
          "606": -2.7185256481170654,
          "607": 1.7032064199447632,
          "608": -0.41887766122817993,
          "609": -0.06720113009214401,
          "610": 0.9130198359489441,
          "611": 1.039817452430725,
          "612": 0.7495724558830261,
          "613": 0.9597495198249817,
          "614": -0.4045493006706238,
          "615": -0.7610482573509216,
          "616": 1.9465253353118896,
          "617": -0.83261638879776,
          "618": -1.826003074645996,
          "619": 1.496075987815857
        }
      },
      "forgetHidden": {
        "rows": 20,
        "columns": 20,
        "weights": {
          "0": 0.9811527132987976,
          "1": -1.9784034490585327,
          "2": 0.18802861869335175,
          "3": -1.9975500106811523,
          "4": -1.6640981435775757,
          "5": -1.091217041015625,
          "6": -2.26086163520813,
          "7": -1.6330431699752808,
          "8": 2.156102180480957,
          "9": 2.0689406394958496,
          "10": -0.39020004868507385,
          "11": -1.3967244625091553,
          "12": -3.1440274715423584,
          "13": -1.2691102027893066,
          "14": -0.5979394316673279,
          "15": -2.206697463989258,
          "16": 1.2355655431747437,
          "17": -4.29994535446167,
          "18": 0.9862039685249329,
          "19": 4.008878707885742,
          "20": -0.7867769002914429,
          "21": -2.5859525203704834,
          "22": 1.512398600578308,
          "23": 0.7186305522918701,
          "24": -2.699810266494751,
          "25": 0.9463555216789246,
          "26": 1.3240134716033936,
          "27": -0.2004297971725464,
          "28": -4.504433631896973,
          "29": 2.063136339187622,
          "30": -0.591132640838623,
          "31": -2.713123083114624,
          "32": 2.6870782375335693,
          "33": -0.00013498486077878624,
          "34": -1.039047122001648,
          "35": 6.227818965911865,
          "36": -2.9968409538269043,
          "37": -1.4193576574325562,
          "38": 1.447255253791809,
          "39": 1.361886978149414,
          "40": -5.739985466003418,
          "41": -0.9441260695457458,
          "42": 0.16343547403812408,
          "43": -1.2201181650161743,
          "44": -1.0240458250045776,
          "45": 0.13747505843639374,
          "46": 1.887323260307312,
          "47": 0.03071979619562626,
          "48": -2.724414825439453,
          "49": 0.02462402544915676,
          "50": -0.16107551753520966,
          "51": -1.2360771894454956,
          "52": 0.3636246621608734,
